=== Run information ===

Scheme:       weka.classifiers.trees.J48 -C 0.25 -M 2
Relation:     Dry_Beans_Dataset-weka.filters.unsupervised.attribute.Normalize-S1.0-T0.0-weka.filters.unsupervised.attribute.Remove-V-R2-5,7,9,11-14,16-17
Instances:    13611
Attributes:   12
              Perimeter
              MajorAxisLength
              MinorAxisLength
              AspectRation
              ConvexArea
              Extent
              roundness
              Compactness
              ShapeFactor1
              ShapeFactor2
              ShapeFactor4
              Class
Test mode:    10-fold cross-validation

=== Classifier model (full training set) ===

J48 pruned tree
------------------

MajorAxisLength <= 0.261576
|   Compactness <= 0.634907
|   |   Perimeter <= 0.151023
|   |   |   Perimeter <= 0.121547: DERMASON (2520.0/41.0)
|   |   |   Perimeter > 0.121547
|   |   |   |   MinorAxisLength <= 0.199103
|   |   |   |   |   ShapeFactor1 <= 0.680116
|   |   |   |   |   |   roundness <= 0.821688
|   |   |   |   |   |   |   ShapeFactor1 <= 0.628186
|   |   |   |   |   |   |   |   ShapeFactor2 <= 0.51741
|   |   |   |   |   |   |   |   |   ShapeFactor4 <= 0.939926
|   |   |   |   |   |   |   |   |   |   MajorAxisLength <= 0.167734
|   |   |   |   |   |   |   |   |   |   |   roundness <= 0.74164: DERMASON (7.0)
|   |   |   |   |   |   |   |   |   |   |   roundness > 0.74164: SIRA (114.0/38.0)
|   |   |   |   |   |   |   |   |   |   MajorAxisLength > 0.167734
|   |   |   |   |   |   |   |   |   |   |   roundness <= 0.806882
|   |   |   |   |   |   |   |   |   |   |   |   ConvexArea <= 0.071153: DERMASON (6.0/1.0)
|   |   |   |   |   |   |   |   |   |   |   |   ConvexArea > 0.071153
|   |   |   |   |   |   |   |   |   |   |   |   |   Perimeter <= 0.143812: SIRA (3.0)
|   |   |   |   |   |   |   |   |   |   |   |   |   Perimeter > 0.143812
|   |   |   |   |   |   |   |   |   |   |   |   |   |   Perimeter <= 0.145814: DERMASON (3.0)
|   |   |   |   |   |   |   |   |   |   |   |   |   |   Perimeter > 0.145814: SIRA (17.0/4.0)
|   |   |   |   |   |   |   |   |   |   |   roundness > 0.806882: DERMASON (11.0/1.0)
|   |   |   |   |   |   |   |   |   ShapeFactor4 > 0.939926
|   |   |   |   |   |   |   |   |   |   ShapeFactor2 <= 0.487631
|   |   |   |   |   |   |   |   |   |   |   Extent <= 0.775119
|   |   |   |   |   |   |   |   |   |   |   |   roundness <= 0.790142
|   |   |   |   |   |   |   |   |   |   |   |   |   AspectRation <= 0.404499: DERMASON (21.0/2.0)
|   |   |   |   |   |   |   |   |   |   |   |   |   AspectRation > 0.404499
|   |   |   |   |   |   |   |   |   |   |   |   |   |   Perimeter <= 0.141658: SIRA (4.0)
|   |   |   |   |   |   |   |   |   |   |   |   |   |   Perimeter > 0.141658
|   |   |   |   |   |   |   |   |   |   |   |   |   |   |   Perimeter <= 0.148182: DERMASON (7.0/1.0)
|   |   |   |   |   |   |   |   |   |   |   |   |   |   |   Perimeter > 0.148182: SIRA (2.0)
|   |   |   |   |   |   |   |   |   |   |   |   roundness > 0.790142: DERMASON (100.0/21.0)
|   |   |   |   |   |   |   |   |   |   |   Extent > 0.775119
|   |   |   |   |   |   |   |   |   |   |   |   ConvexArea <= 0.066651: DERMASON (4.0/1.0)
|   |   |   |   |   |   |   |   |   |   |   |   ConvexArea > 0.066651: SIRA (12.0/1.0)
|   |   |   |   |   |   |   |   |   |   ShapeFactor2 > 0.487631: SIRA (7.0)
|   |   |   |   |   |   |   |   ShapeFactor2 > 0.51741
|   |   |   |   |   |   |   |   |   Perimeter <= 0.14069: DERMASON (10.0/1.0)
|   |   |   |   |   |   |   |   |   Perimeter > 0.14069: SEKER (2.0/1.0)
|   |   |   |   |   |   |   ShapeFactor1 > 0.628186
|   |   |   |   |   |   |   |   ShapeFactor4 <= 0.855874
|   |   |   |   |   |   |   |   |   ShapeFactor4 <= 0.749744: SIRA (2.0)
|   |   |   |   |   |   |   |   |   ShapeFactor4 > 0.749744
|   |   |   |   |   |   |   |   |   |   Perimeter <= 0.13196: DERMASON (3.0)
|   |   |   |   |   |   |   |   |   |   Perimeter > 0.13196: HOROZ (4.0/1.0)
|   |   |   |   |   |   |   |   ShapeFactor4 > 0.855874
|   |   |   |   |   |   |   |   |   ShapeFactor4 <= 0.917836: DERMASON (26.0)
|   |   |   |   |   |   |   |   |   ShapeFactor4 > 0.917836
|   |   |   |   |   |   |   |   |   |   ShapeFactor4 <= 0.94926
|   |   |   |   |   |   |   |   |   |   |   ConvexArea <= 0.05996: DERMASON (7.0)
|   |   |   |   |   |   |   |   |   |   |   ConvexArea > 0.05996
|   |   |   |   |   |   |   |   |   |   |   |   ConvexArea <= 0.062961: SIRA (7.0/1.0)
|   |   |   |   |   |   |   |   |   |   |   |   ConvexArea > 0.062961: DERMASON (9.0/1.0)
|   |   |   |   |   |   |   |   |   |   ShapeFactor4 > 0.94926: DERMASON (18.0/1.0)
|   |   |   |   |   |   roundness > 0.821688
|   |   |   |   |   |   |   MinorAxisLength <= 0.165713: DERMASON (140.0/9.0)
|   |   |   |   |   |   |   MinorAxisLength > 0.165713
|   |   |   |   |   |   |   |   ShapeFactor4 <= 0.978264
|   |   |   |   |   |   |   |   |   roundness <= 0.852789
|   |   |   |   |   |   |   |   |   |   Extent <= 0.651025: DERMASON (85.0/16.0)
|   |   |   |   |   |   |   |   |   |   Extent > 0.651025: SIRA (78.0/33.0)
|   |   |   |   |   |   |   |   |   roundness > 0.852789: DERMASON (166.0/32.0)
|   |   |   |   |   |   |   |   ShapeFactor4 > 0.978264
|   |   |   |   |   |   |   |   |   Compactness <= 0.571586
|   |   |   |   |   |   |   |   |   |   ShapeFactor4 <= 0.980772: DERMASON (14.0)
|   |   |   |   |   |   |   |   |   |   ShapeFactor4 > 0.980772
|   |   |   |   |   |   |   |   |   |   |   ShapeFactor4 <= 0.987976
|   |   |   |   |   |   |   |   |   |   |   |   ConvexArea <= 0.07866
|   |   |   |   |   |   |   |   |   |   |   |   |   ShapeFactor2 <= 0.458853: SIRA (5.0)
|   |   |   |   |   |   |   |   |   |   |   |   |   ShapeFactor2 > 0.458853
|   |   |   |   |   |   |   |   |   |   |   |   |   |   ShapeFactor4 <= 0.986096: DERMASON (6.0/1.0)
|   |   |   |   |   |   |   |   |   |   |   |   |   |   ShapeFactor4 > 0.986096: SIRA (2.0)
|   |   |   |   |   |   |   |   |   |   |   |   ConvexArea > 0.07866: DERMASON (7.0)
|   |   |   |   |   |   |   |   |   |   |   ShapeFactor4 > 0.987976: DERMASON (6.0/1.0)
|   |   |   |   |   |   |   |   |   Compactness > 0.571586
|   |   |   |   |   |   |   |   |   |   Perimeter <= 0.128307: DERMASON (3.0)
|   |   |   |   |   |   |   |   |   |   Perimeter > 0.128307: SEKER (5.0/1.0)
|   |   |   |   |   ShapeFactor1 > 0.680116
|   |   |   |   |   |   MajorAxisLength <= 0.157101: DERMASON (7.0)
|   |   |   |   |   |   MajorAxisLength > 0.157101: HOROZ (22.0/4.0)
|   |   |   |   MinorAxisLength > 0.199103
|   |   |   |   |   roundness <= 0.889828
|   |   |   |   |   |   Compactness <= 0.612332
|   |   |   |   |   |   |   MajorAxisLength <= 0.144405: DERMASON (4.0)
|   |   |   |   |   |   |   MajorAxisLength > 0.144405: SIRA (20.0/10.0)
|   |   |   |   |   |   Compactness > 0.612332
|   |   |   |   |   |   |   Extent <= 0.739467: SEKER (10.0/2.0)
|   |   |   |   |   |   |   Extent > 0.739467: SIRA (2.0)
|   |   |   |   |   roundness > 0.889828
|   |   |   |   |   |   ShapeFactor4 <= 0.979869
|   |   |   |   |   |   |   MinorAxisLength <= 0.218412: DERMASON (18.0/6.0)
|   |   |   |   |   |   |   MinorAxisLength > 0.218412: SEKER (5.0)
|   |   |   |   |   |   ShapeFactor4 > 0.979869: SEKER (8.0)
|   |   Perimeter > 0.151023
|   |   |   Compactness <= 0.295216
|   |   |   |   ShapeFactor1 <= 0.615966
|   |   |   |   |   roundness <= 0.715452
|   |   |   |   |   |   ShapeFactor4 <= 0.912927
|   |   |   |   |   |   |   ShapeFactor1 <= 0.614403: HOROZ (7.0/1.0)
|   |   |   |   |   |   |   ShapeFactor1 > 0.614403: SIRA (2.0)
|   |   |   |   |   |   ShapeFactor4 > 0.912927: SIRA (6.0)
|   |   |   |   |   roundness > 0.715452: HOROZ (3.0/1.0)
|   |   |   |   ShapeFactor1 > 0.615966: HOROZ (91.0/1.0)
|   |   |   Compactness > 0.295216
|   |   |   |   Perimeter <= 0.236955
|   |   |   |   |   roundness <= 0.863309
|   |   |   |   |   |   ConvexArea <= 0.090627
|   |   |   |   |   |   |   Compactness <= 0.581783
|   |   |   |   |   |   |   |   roundness <= 0.608244
|   |   |   |   |   |   |   |   |   Perimeter <= 0.187096: DERMASON (10.0/1.0)
|   |   |   |   |   |   |   |   |   Perimeter > 0.187096
|   |   |   |   |   |   |   |   |   |   AspectRation <= 0.294243: SEKER (2.0)
|   |   |   |   |   |   |   |   |   |   AspectRation > 0.294243: SIRA (3.0/1.0)
|   |   |   |   |   |   |   |   roundness > 0.608244
|   |   |   |   |   |   |   |   |   ShapeFactor4 <= 0.943363
|   |   |   |   |   |   |   |   |   |   AspectRation <= 0.434406
|   |   |   |   |   |   |   |   |   |   |   Extent <= 0.757688
|   |   |   |   |   |   |   |   |   |   |   |   Perimeter <= 0.163662
|   |   |   |   |   |   |   |   |   |   |   |   |   ConvexArea <= 0.08939
|   |   |   |   |   |   |   |   |   |   |   |   |   |   ShapeFactor1 <= 0.582575: SIRA (119.0/23.0)
|   |   |   |   |   |   |   |   |   |   |   |   |   |   ShapeFactor1 > 0.582575: DERMASON (3.0)
|   |   |   |   |   |   |   |   |   |   |   |   |   ConvexArea > 0.08939: DERMASON (4.0)
|   |   |   |   |   |   |   |   |   |   |   |   Perimeter > 0.163662
|   |   |   |   |   |   |   |   |   |   |   |   |   ShapeFactor2 <= 0.466913: SIRA (86.0/3.0)
|   |   |   |   |   |   |   |   |   |   |   |   |   ShapeFactor2 > 0.466913: DERMASON (2.0)
|   |   |   |   |   |   |   |   |   |   |   Extent > 0.757688: SIRA (61.0/1.0)
|   |   |   |   |   |   |   |   |   |   AspectRation > 0.434406
|   |   |   |   |   |   |   |   |   |   |   roundness <= 0.748806
|   |   |   |   |   |   |   |   |   |   |   |   Perimeter <= 0.15348: DERMASON (2.0)
|   |   |   |   |   |   |   |   |   |   |   |   Perimeter > 0.15348
|   |   |   |   |   |   |   |   |   |   |   |   |   Perimeter <= 0.177052: SIRA (28.0/4.0)
|   |   |   |   |   |   |   |   |   |   |   |   |   Perimeter > 0.177052
|   |   |   |   |   |   |   |   |   |   |   |   |   |   Perimeter <= 0.183948: DERMASON (2.0)
|   |   |   |   |   |   |   |   |   |   |   |   |   |   Perimeter > 0.183948: SIRA (3.0/1.0)
|   |   |   |   |   |   |   |   |   |   |   roundness > 0.748806
|   |   |   |   |   |   |   |   |   |   |   |   Extent <= 0.795433
|   |   |   |   |   |   |   |   |   |   |   |   |   ConvexArea <= 0.08932
|   |   |   |   |   |   |   |   |   |   |   |   |   |   ShapeFactor4 <= 0.876495: SIRA (3.0)
|   |   |   |   |   |   |   |   |   |   |   |   |   |   ShapeFactor4 > 0.876495
|   |   |   |   |   |   |   |   |   |   |   |   |   |   |   ConvexArea <= 0.079183
|   |   |   |   |   |   |   |   |   |   |   |   |   |   |   |   Extent <= 0.489022: DERMASON (2.0)
|   |   |   |   |   |   |   |   |   |   |   |   |   |   |   |   Extent > 0.489022: SIRA (3.0)
|   |   |   |   |   |   |   |   |   |   |   |   |   |   |   ConvexArea > 0.079183: DERMASON (14.0/1.0)
|   |   |   |   |   |   |   |   |   |   |   |   |   ConvexArea > 0.08932: SIRA (4.0/1.0)
|   |   |   |   |   |   |   |   |   |   |   |   Extent > 0.795433: SIRA (6.0)
|   |   |   |   |   |   |   |   |   ShapeFactor4 > 0.943363
|   |   |   |   |   |   |   |   |   |   ShapeFactor1 <= 0.518266
|   |   |   |   |   |   |   |   |   |   |   ShapeFactor4 <= 0.971012
|   |   |   |   |   |   |   |   |   |   |   |   roundness <= 0.854537
|   |   |   |   |   |   |   |   |   |   |   |   |   ShapeFactor1 <= 0.507678
|   |   |   |   |   |   |   |   |   |   |   |   |   |   ShapeFactor4 <= 0.959638: SIRA (3.0)
|   |   |   |   |   |   |   |   |   |   |   |   |   |   ShapeFactor4 > 0.959638: DERMASON (4.0)
|   |   |   |   |   |   |   |   |   |   |   |   |   ShapeFactor1 > 0.507678: SIRA (15.0)
|   |   |   |   |   |   |   |   |   |   |   |   roundness > 0.854537: DERMASON (3.0/1.0)
|   |   |   |   |   |   |   |   |   |   |   ShapeFactor4 > 0.971012
|   |   |   |   |   |   |   |   |   |   |   |   MajorAxisLength <= 0.168688: SIRA (9.0)
|   |   |   |   |   |   |   |   |   |   |   |   MajorAxisLength > 0.168688: SEKER (4.0/1.0)
|   |   |   |   |   |   |   |   |   |   ShapeFactor1 > 0.518266
|   |   |   |   |   |   |   |   |   |   |   Perimeter <= 0.161203
|   |   |   |   |   |   |   |   |   |   |   |   MajorAxisLength <= 0.187162
|   |   |   |   |   |   |   |   |   |   |   |   |   MajorAxisLength <= 0.155458: SEKER (2.0/1.0)
|   |   |   |   |   |   |   |   |   |   |   |   |   MajorAxisLength > 0.155458
|   |   |   |   |   |   |   |   |   |   |   |   |   |   Extent <= 0.739376: DERMASON (74.0/33.0)
|   |   |   |   |   |   |   |   |   |   |   |   |   |   Extent > 0.739376: SIRA (37.0/10.0)
|   |   |   |   |   |   |   |   |   |   |   |   MajorAxisLength > 0.187162
|   |   |   |   |   |   |   |   |   |   |   |   |   roundness <= 0.769176
|   |   |   |   |   |   |   |   |   |   |   |   |   |   ShapeFactor4 <= 0.963093: SIRA (2.0)
|   |   |   |   |   |   |   |   |   |   |   |   |   |   ShapeFactor4 > 0.963093: DERMASON (2.0)
|   |   |   |   |   |   |   |   |   |   |   |   |   roundness > 0.769176: DERMASON (15.0/1.0)
|   |   |   |   |   |   |   |   |   |   |   Perimeter > 0.161203: SIRA (89.0/28.0)
|   |   |   |   |   |   |   Compactness > 0.581783
|   |   |   |   |   |   |   |   ShapeFactor4 <= 0.957058
|   |   |   |   |   |   |   |   |   MinorAxisLength <= 0.211261: DERMASON (5.0)
|   |   |   |   |   |   |   |   |   MinorAxisLength > 0.211261
|   |   |   |   |   |   |   |   |   |   MajorAxisLength <= 0.158928: SIRA (5.0)
|   |   |   |   |   |   |   |   |   |   MajorAxisLength > 0.158928: DERMASON (2.0)
|   |   |   |   |   |   |   |   ShapeFactor4 > 0.957058
|   |   |   |   |   |   |   |   |   MinorAxisLength <= 0.221181: SEKER (10.0/1.0)
|   |   |   |   |   |   |   |   |   MinorAxisLength > 0.221181: DERMASON (2.0)
|   |   |   |   |   |   ConvexArea > 0.090627
|   |   |   |   |   |   |   Compactness <= 0.556674
|   |   |   |   |   |   |   |   roundness <= 0.695982
|   |   |   |   |   |   |   |   |   Compactness <= 0.425143
|   |   |   |   |   |   |   |   |   |   ShapeFactor4 <= 0.446727: HOROZ (3.0)
|   |   |   |   |   |   |   |   |   |   ShapeFactor4 > 0.446727
|   |   |   |   |   |   |   |   |   |   |   Extent <= 0.304162: HOROZ (2.0)
|   |   |   |   |   |   |   |   |   |   |   Extent > 0.304162
|   |   |   |   |   |   |   |   |   |   |   |   ShapeFactor2 <= 0.27267
|   |   |   |   |   |   |   |   |   |   |   |   |   ShapeFactor2 <= 0.26737: SIRA (4.0)
|   |   |   |   |   |   |   |   |   |   |   |   |   ShapeFactor2 > 0.26737: HOROZ (3.0)
|   |   |   |   |   |   |   |   |   |   |   |   ShapeFactor2 > 0.27267: SIRA (14.0)
|   |   |   |   |   |   |   |   |   Compactness > 0.425143
|   |   |   |   |   |   |   |   |   |   ShapeFactor4 <= 0.936688
|   |   |   |   |   |   |   |   |   |   |   MajorAxisLength <= 0.209329: BARBUNYA (3.0/1.0)
|   |   |   |   |   |   |   |   |   |   |   MajorAxisLength > 0.209329: SIRA (2.0)
|   |   |   |   |   |   |   |   |   |   ShapeFactor4 > 0.936688: BARBUNYA (7.0)
|   |   |   |   |   |   |   |   roundness > 0.695982: SIRA (1590.0/42.0)
|   |   |   |   |   |   |   Compactness > 0.556674
|   |   |   |   |   |   |   |   ShapeFactor4 <= 0.958252
|   |   |   |   |   |   |   |   |   roundness <= 0.726567: BARBUNYA (3.0/1.0)
|   |   |   |   |   |   |   |   |   roundness > 0.726567: SIRA (43.0/3.0)
|   |   |   |   |   |   |   |   ShapeFactor4 > 0.958252
|   |   |   |   |   |   |   |   |   Perimeter <= 0.19129
|   |   |   |   |   |   |   |   |   |   ShapeFactor4 <= 0.971063
|   |   |   |   |   |   |   |   |   |   |   MinorAxisLength <= 0.230275: SEKER (3.0/1.0)
|   |   |   |   |   |   |   |   |   |   |   MinorAxisLength > 0.230275: SIRA (5.0)
|   |   |   |   |   |   |   |   |   |   ShapeFactor4 > 0.971063: SEKER (4.0/1.0)
|   |   |   |   |   |   |   |   |   Perimeter > 0.19129: SEKER (14.0/1.0)
|   |   |   |   |   roundness > 0.863309
|   |   |   |   |   |   ConvexArea <= 0.089501
|   |   |   |   |   |   |   ShapeFactor4 <= 0.977328
|   |   |   |   |   |   |   |   roundness <= 0.880313
|   |   |   |   |   |   |   |   |   MajorAxisLength <= 0.178806
|   |   |   |   |   |   |   |   |   |   Extent <= 0.60493: DERMASON (4.0/1.0)
|   |   |   |   |   |   |   |   |   |   Extent > 0.60493: SIRA (8.0/1.0)
|   |   |   |   |   |   |   |   |   MajorAxisLength > 0.178806: DERMASON (3.0/1.0)
|   |   |   |   |   |   |   |   roundness > 0.880313: DERMASON (5.0/1.0)
|   |   |   |   |   |   |   ShapeFactor4 > 0.977328
|   |   |   |   |   |   |   |   MajorAxisLength <= 0.16128: SEKER (4.0)
|   |   |   |   |   |   |   |   MajorAxisLength > 0.16128: DERMASON (3.0/1.0)
|   |   |   |   |   |   ConvexArea > 0.089501
|   |   |   |   |   |   |   ShapeFactor4 <= 0.933308: SIRA (7.0)
|   |   |   |   |   |   |   ShapeFactor4 > 0.933308
|   |   |   |   |   |   |   |   AspectRation <= 0.254427: SEKER (29.0)
|   |   |   |   |   |   |   |   AspectRation > 0.254427
|   |   |   |   |   |   |   |   |   MajorAxisLength <= 0.197693
|   |   |   |   |   |   |   |   |   |   roundness <= 0.875576: SIRA (17.0/6.0)
|   |   |   |   |   |   |   |   |   |   roundness > 0.875576: SEKER (20.0/4.0)
|   |   |   |   |   |   |   |   |   MajorAxisLength > 0.197693
|   |   |   |   |   |   |   |   |   |   ShapeFactor2 <= 0.406954: SEKER (11.0)
|   |   |   |   |   |   |   |   |   |   ShapeFactor2 > 0.406954
|   |   |   |   |   |   |   |   |   |   |   ShapeFactor2 <= 0.410446: BARBUNYA (3.0/1.0)
|   |   |   |   |   |   |   |   |   |   |   ShapeFactor2 > 0.410446: SEKER (4.0)
|   |   |   |   Perimeter > 0.236955
|   |   |   |   |   ShapeFactor4 <= 0.795851
|   |   |   |   |   |   Perimeter <= 0.251722: SIRA (3.0)
|   |   |   |   |   |   Perimeter > 0.251722: CALI (3.0/2.0)
|   |   |   |   |   ShapeFactor4 > 0.795851
|   |   |   |   |   |   ShapeFactor2 <= 0.317572
|   |   |   |   |   |   |   roundness <= 0.694277
|   |   |   |   |   |   |   |   AspectRation <= 0.439144: BARBUNYA (6.0)
|   |   |   |   |   |   |   |   AspectRation > 0.439144: SIRA (3.0/1.0)
|   |   |   |   |   |   |   roundness > 0.694277: SIRA (10.0/1.0)
|   |   |   |   |   |   ShapeFactor2 > 0.317572
|   |   |   |   |   |   |   roundness <= 0.811956
|   |   |   |   |   |   |   |   MajorAxisLength <= 0.212138: SEKER (3.0/1.0)
|   |   |   |   |   |   |   |   MajorAxisLength > 0.212138: BARBUNYA (76.0/1.0)
|   |   |   |   |   |   |   roundness > 0.811956: SEKER (6.0/1.0)
|   Compactness > 0.634907
|   |   ShapeFactor1 <= 0.55303
|   |   |   Perimeter <= 0.225925
|   |   |   |   ShapeFactor4 <= 0.944612
|   |   |   |   |   Compactness <= 0.683233
|   |   |   |   |   |   ShapeFactor4 <= 0.896103: SIRA (9.0/2.0)
|   |   |   |   |   |   ShapeFactor4 > 0.896103
|   |   |   |   |   |   |   ShapeFactor4 <= 0.939062
|   |   |   |   |   |   |   |   Perimeter <= 0.15342
|   |   |   |   |   |   |   |   |   ShapeFactor4 <= 0.937708
|   |   |   |   |   |   |   |   |   |   Extent <= 0.709248
|   |   |   |   |   |   |   |   |   |   |   Extent <= 0.607757: SIRA (3.0/1.0)
|   |   |   |   |   |   |   |   |   |   |   Extent > 0.607757: DERMASON (3.0)
|   |   |   |   |   |   |   |   |   |   Extent > 0.709248
|   |   |   |   |   |   |   |   |   |   |   roundness <= 0.900445: SEKER (3.0)
|   |   |   |   |   |   |   |   |   |   |   roundness > 0.900445: DERMASON (2.0)
|   |   |   |   |   |   |   |   |   ShapeFactor4 > 0.937708: SEKER (4.0)
|   |   |   |   |   |   |   |   Perimeter > 0.15342: SEKER (8.0)
|   |   |   |   |   |   |   ShapeFactor4 > 0.939062
|   |   |   |   |   |   |   |   Perimeter <= 0.137179: DERMASON (4.0/1.0)
|   |   |   |   |   |   |   |   Perimeter > 0.137179: SIRA (2.0)
|   |   |   |   |   Compactness > 0.683233: SEKER (81.0/8.0)
|   |   |   |   ShapeFactor4 > 0.944612
|   |   |   |   |   Compactness <= 0.69585
|   |   |   |   |   |   MinorAxisLength <= 0.192804
|   |   |   |   |   |   |   ShapeFactor4 <= 0.985753: DERMASON (16.0/3.0)
|   |   |   |   |   |   |   ShapeFactor4 > 0.985753: SEKER (9.0)
|   |   |   |   |   |   MinorAxisLength > 0.192804: SEKER (313.0/16.0)
|   |   |   |   |   Compactness > 0.69585: SEKER (1422.0/2.0)
|   |   |   Perimeter > 0.225925
|   |   |   |   roundness <= 0.545485: SEKER (7.0)
|   |   |   |   roundness > 0.545485
|   |   |   |   |   roundness <= 0.827767
|   |   |   |   |   |   MinorAxisLength <= 0.361114
|   |   |   |   |   |   |   Compactness <= 0.697149: BARBUNYA (6.0)
|   |   |   |   |   |   |   Compactness > 0.697149
|   |   |   |   |   |   |   |   Compactness <= 0.721382: SEKER (4.0)
|   |   |   |   |   |   |   |   Compactness > 0.721382: BARBUNYA (2.0)
|   |   |   |   |   |   MinorAxisLength > 0.361114: BARBUNYA (14.0)
|   |   |   |   |   roundness > 0.827767: SEKER (3.0/1.0)
|   |   ShapeFactor1 > 0.55303
|   |   |   ShapeFactor1 <= 0.593906
|   |   |   |   ShapeFactor4 <= 0.979765
|   |   |   |   |   Perimeter <= 0.106299: DERMASON (42.0/4.0)
|   |   |   |   |   Perimeter > 0.106299: SEKER (2.0)
|   |   |   |   ShapeFactor4 > 0.979765: SEKER (8.0/1.0)
|   |   |   ShapeFactor1 > 0.593906: DERMASON (115.0)
MajorAxisLength > 0.261576
|   ShapeFactor1 <= 0.431174
|   |   MinorAxisLength <= 0.537143
|   |   |   Compactness <= 0.415904
|   |   |   |   roundness <= 0.620514
|   |   |   |   |   Compactness <= 0.318388
|   |   |   |   |   |   roundness <= 0.545356
|   |   |   |   |   |   |   ShapeFactor4 <= 0.790825: HOROZ (7.0/2.0)
|   |   |   |   |   |   |   ShapeFactor4 > 0.790825: BARBUNYA (27.0/4.0)
|   |   |   |   |   |   roundness > 0.545356
|   |   |   |   |   |   |   ShapeFactor4 <= 0.915965
|   |   |   |   |   |   |   |   MinorAxisLength <= 0.288233
|   |   |   |   |   |   |   |   |   Perimeter <= 0.37365
|   |   |   |   |   |   |   |   |   |   Extent <= 0.37495: HOROZ (2.0)
|   |   |   |   |   |   |   |   |   |   Extent > 0.37495: CALI (10.0/1.0)
|   |   |   |   |   |   |   |   |   Perimeter > 0.37365: HOROZ (6.0)
|   |   |   |   |   |   |   |   MinorAxisLength > 0.288233: CALI (26.0)
|   |   |   |   |   |   |   ShapeFactor4 > 0.915965
|   |   |   |   |   |   |   |   AspectRation <= 0.611517: BARBUNYA (9.0/1.0)
|   |   |   |   |   |   |   |   AspectRation > 0.611517: HOROZ (5.0/1.0)
|   |   |   |   |   Compactness > 0.318388: BARBUNYA (176.0)
|   |   |   |   roundness > 0.620514
|   |   |   |   |   ShapeFactor4 <= 0.905608
|   |   |   |   |   |   ShapeFactor2 <= 0.205181: CALI (1089.0/13.0)
|   |   |   |   |   |   ShapeFactor2 > 0.205181
|   |   |   |   |   |   |   roundness <= 0.674626
|   |   |   |   |   |   |   |   ShapeFactor4 <= 0.830468
|   |   |   |   |   |   |   |   |   MajorAxisLength <= 0.362479: CALI (8.0/3.0)
|   |   |   |   |   |   |   |   |   MajorAxisLength > 0.362479: HOROZ (2.0)
|   |   |   |   |   |   |   |   ShapeFactor4 > 0.830468: BARBUNYA (12.0/3.0)
|   |   |   |   |   |   |   roundness > 0.674626: CALI (151.0/10.0)
|   |   |   |   |   ShapeFactor4 > 0.905608
|   |   |   |   |   |   roundness <= 0.66376
|   |   |   |   |   |   |   ShapeFactor2 <= 0.139951: CALI (8.0)
|   |   |   |   |   |   |   ShapeFactor2 > 0.139951: BARBUNYA (46.0/5.0)
|   |   |   |   |   |   roundness > 0.66376
|   |   |   |   |   |   |   Compactness <= 0.333726: CALI (72.0/1.0)
|   |   |   |   |   |   |   Compactness > 0.333726
|   |   |   |   |   |   |   |   ConvexArea <= 0.170362
|   |   |   |   |   |   |   |   |   AspectRation <= 0.460481
|   |   |   |   |   |   |   |   |   |   roundness <= 0.780139: BARBUNYA (9.0)
|   |   |   |   |   |   |   |   |   |   roundness > 0.780139: CALI (2.0)
|   |   |   |   |   |   |   |   |   AspectRation > 0.460481: SIRA (2.0)
|   |   |   |   |   |   |   |   ConvexArea > 0.170362
|   |   |   |   |   |   |   |   |   roundness <= 0.725788: BARBUNYA (54.0/19.0)
|   |   |   |   |   |   |   |   |   roundness > 0.725788
|   |   |   |   |   |   |   |   |   |   ShapeFactor4 <= 0.941268: CALI (65.0/4.0)
|   |   |   |   |   |   |   |   |   |   ShapeFactor4 > 0.941268
|   |   |   |   |   |   |   |   |   |   |   roundness <= 0.733772: BARBUNYA (4.0)
|   |   |   |   |   |   |   |   |   |   |   roundness > 0.733772
|   |   |   |   |   |   |   |   |   |   |   |   Extent <= 0.446867: BARBUNYA (3.0)
|   |   |   |   |   |   |   |   |   |   |   |   Extent > 0.446867: CALI (23.0/5.0)
|   |   |   Compactness > 0.415904
|   |   |   |   Perimeter <= 0.261791
|   |   |   |   |   MajorAxisLength <= 0.278776
|   |   |   |   |   |   Perimeter <= 0.256374: SIRA (10.0/1.0)
|   |   |   |   |   |   Perimeter > 0.256374: BARBUNYA (2.0/1.0)
|   |   |   |   |   MajorAxisLength > 0.278776: SEKER (3.0/1.0)
|   |   |   |   Perimeter > 0.261791
|   |   |   |   |   roundness <= 0.706009: BARBUNYA (669.0/6.0)
|   |   |   |   |   roundness > 0.706009
|   |   |   |   |   |   Compactness <= 0.510235
|   |   |   |   |   |   |   ShapeFactor4 <= 0.90148
|   |   |   |   |   |   |   |   ShapeFactor4 <= 0.843142: CALI (35.0)
|   |   |   |   |   |   |   |   ShapeFactor4 > 0.843142
|   |   |   |   |   |   |   |   |   roundness <= 0.758452
|   |   |   |   |   |   |   |   |   |   AspectRation <= 0.378332: BARBUNYA (7.0)
|   |   |   |   |   |   |   |   |   |   AspectRation > 0.378332
|   |   |   |   |   |   |   |   |   |   |   roundness <= 0.74014: CALI (6.0)
|   |   |   |   |   |   |   |   |   |   |   roundness > 0.74014
|   |   |   |   |   |   |   |   |   |   |   |   ShapeFactor4 <= 0.87117: CALI (2.0)
|   |   |   |   |   |   |   |   |   |   |   |   ShapeFactor4 > 0.87117: BARBUNYA (2.0)
|   |   |   |   |   |   |   |   |   roundness > 0.758452: CALI (34.0/2.0)
|   |   |   |   |   |   |   ShapeFactor4 > 0.90148
|   |   |   |   |   |   |   |   roundness <= 0.741897: BARBUNYA (34.0/3.0)
|   |   |   |   |   |   |   |   roundness > 0.741897
|   |   |   |   |   |   |   |   |   Extent <= 0.48141: BARBUNYA (9.0)
|   |   |   |   |   |   |   |   |   Extent > 0.48141
|   |   |   |   |   |   |   |   |   |   ShapeFactor4 <= 0.933204: CALI (25.0/4.0)
|   |   |   |   |   |   |   |   |   |   ShapeFactor4 > 0.933204
|   |   |   |   |   |   |   |   |   |   |   Extent <= 0.61124: CALI (9.0/1.0)
|   |   |   |   |   |   |   |   |   |   |   Extent > 0.61124
|   |   |   |   |   |   |   |   |   |   |   |   roundness <= 0.810529: BARBUNYA (23.0/4.0)
|   |   |   |   |   |   |   |   |   |   |   |   roundness > 0.810529: CALI (5.0/1.0)
|   |   |   |   |   |   Compactness > 0.510235
|   |   |   |   |   |   |   roundness <= 0.773081: BARBUNYA (74.0)
|   |   |   |   |   |   |   roundness > 0.773081
|   |   |   |   |   |   |   |   Perimeter <= 0.303223: BARBUNYA (4.0)
|   |   |   |   |   |   |   |   Perimeter > 0.303223: CALI (6.0/2.0)
|   |   MinorAxisLength > 0.537143: BOMBAY (523.0/1.0)
|   ShapeFactor1 > 0.431174
|   |   ShapeFactor2 <= 0.214006
|   |   |   AspectRation <= 0.596445
|   |   |   |   roundness <= 0.602916
|   |   |   |   |   ShapeFactor4 <= 0.930545: HOROZ (13.0/1.0)
|   |   |   |   |   ShapeFactor4 > 0.930545: BARBUNYA (2.0)
|   |   |   |   roundness > 0.602916
|   |   |   |   |   MinorAxisLength <= 0.239933
|   |   |   |   |   |   Perimeter <= 0.290602
|   |   |   |   |   |   |   Extent <= 0.659589
|   |   |   |   |   |   |   |   ShapeFactor4 <= 0.808914: HOROZ (13.0)
|   |   |   |   |   |   |   |   ShapeFactor4 > 0.808914
|   |   |   |   |   |   |   |   |   Perimeter <= 0.258506: HOROZ (7.0/1.0)
|   |   |   |   |   |   |   |   |   Perimeter > 0.258506: SIRA (9.0/2.0)
|   |   |   |   |   |   |   Extent > 0.659589
|   |   |   |   |   |   |   |   Extent <= 0.701281: CALI (3.0/1.0)
|   |   |   |   |   |   |   |   Extent > 0.701281: HOROZ (19.0/2.0)
|   |   |   |   |   |   Perimeter > 0.290602: CALI (3.0/1.0)
|   |   |   |   |   MinorAxisLength > 0.239933
|   |   |   |   |   |   Extent <= 0.473834: HOROZ (13.0)
|   |   |   |   |   |   Extent > 0.473834: CALI (26.0/11.0)
|   |   |   AspectRation > 0.596445: HOROZ (1628.0/19.0)
|   |   ShapeFactor2 > 0.214006
|   |   |   ShapeFactor4 <= 0.753717
|   |   |   |   roundness <= 0.705902: HOROZ (23.0)
|   |   |   |   roundness > 0.705902
|   |   |   |   |   ShapeFactor4 <= 0.660278: HOROZ (3.0)
|   |   |   |   |   ShapeFactor4 > 0.660278: SIRA (3.0/1.0)
|   |   |   ShapeFactor4 > 0.753717
|   |   |   |   roundness <= 0.691022
|   |   |   |   |   AspectRation <= 0.492776
|   |   |   |   |   |   Compactness <= 0.357167
|   |   |   |   |   |   |   roundness <= 0.667613: BARBUNYA (3.0/1.0)
|   |   |   |   |   |   |   roundness > 0.667613: CALI (4.0)
|   |   |   |   |   |   Compactness > 0.357167: BARBUNYA (18.0)
|   |   |   |   |   AspectRation > 0.492776
|   |   |   |   |   |   MajorAxisLength <= 0.309944
|   |   |   |   |   |   |   AspectRation <= 0.592089
|   |   |   |   |   |   |   |   Extent <= 0.770776
|   |   |   |   |   |   |   |   |   Extent <= 0.545179
|   |   |   |   |   |   |   |   |   |   roundness <= 0.6823
|   |   |   |   |   |   |   |   |   |   |   roundness <= 0.660483
|   |   |   |   |   |   |   |   |   |   |   |   MajorAxisLength <= 0.281973: HOROZ (3.0)
|   |   |   |   |   |   |   |   |   |   |   |   MajorAxisLength > 0.281973: SIRA (4.0/1.0)
|   |   |   |   |   |   |   |   |   |   |   roundness > 0.660483: SIRA (5.0)
|   |   |   |   |   |   |   |   |   |   roundness > 0.6823: HOROZ (3.0)
|   |   |   |   |   |   |   |   |   Extent > 0.545179: SIRA (6.0/1.0)
|   |   |   |   |   |   |   |   Extent > 0.770776: HOROZ (5.0)
|   |   |   |   |   |   |   AspectRation > 0.592089: HOROZ (6.0)
|   |   |   |   |   |   MajorAxisLength > 0.309944: BARBUNYA (3.0/2.0)
|   |   |   |   roundness > 0.691022
|   |   |   |   |   Perimeter <= 0.254812
|   |   |   |   |   |   ConvexArea <= 0.114034: HOROZ (4.0/1.0)
|   |   |   |   |   |   ConvexArea > 0.114034: SIRA (156.0/7.0)
|   |   |   |   |   Perimeter > 0.254812
|   |   |   |   |   |   ShapeFactor4 <= 0.95828
|   |   |   |   |   |   |   Extent <= 0.616704
|   |   |   |   |   |   |   |   roundness <= 0.771739: SIRA (12.0/1.0)
|   |   |   |   |   |   |   |   roundness > 0.771739: CALI (2.0/1.0)
|   |   |   |   |   |   |   Extent > 0.616704
|   |   |   |   |   |   |   |   ShapeFactor4 <= 0.873225: CALI (7.0)
|   |   |   |   |   |   |   |   ShapeFactor4 > 0.873225: SIRA (3.0/1.0)
|   |   |   |   |   |   ShapeFactor4 > 0.95828: BARBUNYA (4.0/1.0)

Number of Leaves  : 	226

Size of the tree : 	451


Time taken to build model: 0.18 seconds

=== Stratified cross-validation ===
=== Summary ===

Correctly Classified Instances       12387               91.0073 %
Incorrectly Classified Instances      1224                8.9927 %
Kappa statistic                          0.8912
Mean absolute error                      0.032 
Root mean squared error                  0.1461
Relative absolute error                 13.551  %
Root relative squared error             42.4996 %
Total Number of Instances            13611     

=== Detailed Accuracy By Class ===

                 TP Rate  FP Rate  Precision  Recall   F-Measure  MCC      ROC Area  PRC Area  Class
                 0,938    0,010    0,943      0,938    0,941      0,931    0,974     0,936     SEKER
                 0,877    0,010    0,904      0,877    0,890      0,879    0,956     0,871     BARBUNYA
                 0,996    0,000    0,996      0,996    0,996      0,996    1,000     0,995     BOMBAY
                 0,917    0,012    0,912      0,917    0,915      0,903    0,974     0,894     CALI
                 0,938    0,008    0,951      0,938    0,944      0,935    0,972     0,912     HOROZ
                 0,852    0,035    0,853      0,852    0,852      0,817    0,955     0,842     SIRA
                 0,919    0,036    0,900      0,919    0,909      0,877    0,978     0,913     DERMASON
Weighted Avg.    0,910    0,021    0,910      0,910    0,910      0,889    0,970     0,899     

=== Confusion Matrix ===

    a    b    c    d    e    f    g   <-- classified as
 1902   13    0    2    0   53   57 |    a = SEKER
   18 1159    2   96   12   34    1 |    b = BARBUNYA
    0    1  520    1    0    0    0 |    c = BOMBAY
    2   84    0 1495   37   12    0 |    d = CALI
    0    8    0   37 1808   58   17 |    e = HOROZ
   44   17    0    8   36 2245  286 |    f = SIRA
   50    0    0    0    9  229 3258 |    g = DERMASON

